{"n_features": 12, "hidden": [32, 16], "lr": 0.01, "min_samples": 10, "retrain_every": 10, "trained": false, "weights": [{"W": [[0.12440022688488721, -0.4245717334822708, 0.3063704177645479, 0.3839839375373412, -0.7965067804027692, -0.5316125575536176, 0.05219062604525527, -0.12910549769612778, -0.006859043828940004, -0.3482537251224934, 0.35901271987513295, 0.3175322279754475], [0.026956919397502818, 0.460194295685121, 0.19085988975028265, -0.3508046789805645, 0.15054187720888923, -0.3914621825439816, 0.35862583376615936, -0.020382167809988742, -0.07546974388846178, -0.27798832242924615, 0.49910041153507545, -0.06308639688085466], [-0.17486410115619805, -0.14375792000179013, 0.21731431500036585, 0.14919191453680092, 0.16849738310274784, 0.17588193797389493, 0.8743239718313994, -0.16591823565786218, -0.20912221844599888, -0.3322213251333099, 0.2514725462273636, 0.46090100848437193], [-0.04651885479030617, -0.342992445442094, -0.33659304682551605, 0.26560339341755296, 0.30343224477394065, 0.22174180149374623, -0.2716932002877153, 0.09477946325381695, 0.047636782103094896, 0.08927924575856068, 0.3557593088583618, 0.09128250054259333], [0.2771653014968311, 0.027589039589978544, 0.11803250025512607, 0.2577223389885492, -0.5948813723955446, -0.13050522758837196, -0.19202883199598342, -0.2608207893605757, -0.11232635369767235, 0.6103072346552479, -0.35347407281218574, 0.3952979829551342], [-0.6870287073354638, -0.13671624099363208, 0.06644366059687233, 0.23932426460916553, 0.2903570353328933, 0.32388265251460174, -0.14236641458731175, -0.18875432894821198, 0.3502671867824594, -0.07809966359126273, -0.5207967606708374, -0.46266256772147507], [-0.37536482392324866, 0.20296502384569132, 0.058145063268865614, 0.28188946538850157, -0.17442516246305156, 0.06472355785273755, 0.2553962088677798, -0.12629019600169883, 0.18647770985903814, -0.27023013385414413, -0.14821611220652017, -0.1558438426300932], [-0.48819949098063725, 0.19880568278366015, -0.19163270292749865, 0.005100702611430929, 0.19626400164455118, 0.18229558925304296, 0.2716423332382512, -0.040206530686477455, -0.1728108122482646, -0.032544823321375094, -0.6888513981041756, -0.5907811929756595], [-0.5399898555408991, -0.40712431253881565, 0.16320714463135577, -0.3696602764015784, -0.15438421620402906, 0.5304077314934359, -0.1454441571396943, 0.3010894700171722, -0.3811478218108702, -0.08386953179653088, -0.387844879820211, -0.13840967364710974], [0.34305436057985456, -0.7051756098515928, 0.17735270981467885, 0.09705515323454922, -0.24256070369239627, -0.5903506469659283, 0.02944674821618725, -0.21616449328837692, 0.09498966551716637, 0.008921101052913112, 0.6539234940828655, -0.0977165257287674], [-0.4178411016569266, 0.07318897149273963, 0.08981327013919187, 0.5548860040116314, 0.3409327384917734, 0.14569199981381534, 0.5973909037712142, -0.4853104846939042, -0.26117746956672055, -0.37827304406375006, -0.15913918574439723, -0.5620297662451446], [0.2592992882234845, -0.09072203619284308, -0.6004541553341991, -0.41460842373383955, 0.12799149225829057, 0.3421637385352259, 0.8151619730495566, 1.1895793703943085, 0.16918194268702383, -0.4039772458518334, -0.8704042492983943, 0.10929274683945181], [-0.3318818124082609, -0.1695688914001105, -0.24988747181456933, -0.0574776386923812, 0.43518460688732963, 0.06411480917936063, -0.064762401029058, -0.42280387410362175, -0.6836864492445418, -0.19853437251824307, -0.02195663442836518, 0.7217543648789123], [0.05318435068230346, 0.40120172534645593, -0.20383657453974008, -0.4837512669355613, -0.39400726827938437, -0.29607230104655646, 0.8689441295707319, -0.33532970760314507, 0.34231178399776857, -0.3686184768673885, 0.3803130899481804, 0.15715557382513112], [-0.06394715394076894, -0.016641231609779476, -0.26731595727582125, 0.18210821367851124, -0.18574622803842206, -0.5003514578406362, -0.5217158300355205, 0.07045872236477313, 0.6446613059159936, 0.06531630272991115, -0.04843389381785384, 0.11668803286262358], [0.5331729783946388, 0.08956253113948044, -0.1677603394929224, 0.4516404746414218, 0.17503908302732818, 0.6269697583019979, 0.0748051457499512, -0.4998873889258359, -0.5585486541744504, 0.673988506012448, 0.7036835838409433, -0.07328841192803932], [-0.15643556878119427, 0.5966321339160493, -0.4519495071596552, -0.36527077592054447, 0.262637064141399, -0.1610968668157101, -0.0020909933324528597, -0.0667252839110909, 0.13781423245127453, 0.5746020637402208, 0.036981133384465806, 0.26288691151864013], [-0.8369792554026212, -0.019889204302102018, -0.3442473163144458, -0.4975783483129751, -0.35850420256545745, -0.13640532347001044, 0.37391564714834824, -0.5414975595008942, 0.012505254486027403, -0.1976613434532907, -0.1337719806042746, 0.40937416792986564], [0.21968470722906738, 0.5459904910331059, -0.06307667942072982, -0.2841173814755206, -0.09138997929672689, 0.09899890047944844, 0.07208577173019041, -0.4426995766886759, 0.03694229865402793, 0.09317382561463017, 1.027754472110382, 0.7662186040220553], [-0.34833513921529685, -0.1173237660602094, -0.59744769544297, -0.24115512861560662, 0.12884520317759784, 0.4922876792772805, -0.29764723036366064, -0.26705416587069974, -0.876627075522613, -0.06640808397918913, -0.4337288674058371, -0.21614274112636617], [-0.3579769136617305, -0.03848252662836353, -0.7175896108711407, -0.5989187134640103, 0.8692614934606702, -0.5255880679096969, -0.44776083740952577, 0.7499168076671193, 1.18598870552509, -0.4782900733824569, -0.15033700707381442, 0.1394394697699059], [0.70573785805749, -0.40288271520049035, -0.10013426129452506, 0.3173467365405301, 0.17749250665268163, -0.1535650730272911, -0.054632996488479996, -0.5612988633329761, -0.09723402381103488, -0.10875223739711531, 0.09478296053710276, -0.22671138773091487], [0.19250479571690873, 0.41343950135065793, 0.06345375730859887, 0.14360395238868323, 0.021700579777676792, 3.4453335296799674e-05, -0.2945748336643342, 0.12920824126975053, -0.03971708748735144, 0.8545323837740504, 0.6423194492284556, 0.15752119546256652], [-0.3115168013840143, -0.45414008172961984, 0.4862820742966066, 0.10726692198702394, 0.19601772361212608, -0.7122242467494253, 0.3786251746065282, 0.1855163262280241, -0.45333142859082803, -0.19249919655274383, 0.10766209784445832, 0.02141948073504868], [-0.11927838712710101, -0.042248908520994506, -0.1028693338885272, 0.062283384754705205, 0.6007340824057532, -1.0478339207148462, -0.09669371558199236, 0.07206089427093851, 0.12083904027733668, -0.15183349202299995, -0.7171786645175116, 0.13390359550615308], [0.7051877719649162, -0.6261962963655123, 0.3526563098470798, -0.13411986071418058, -0.02503555934844164, -0.42984401702683456, -0.13654116059937377, 0.5307409833126355, 0.2378680064712898, 0.7072132514593197, 0.4806763908469711, 0.1792563860384546], [0.7119582889889081, 0.1792182065802417, 0.3380247577016901, -0.12107458478178244, 0.027167215562043392, -0.2847220835911093, 0.403995949568852, -0.48104043978401984, 0.3193931898358281, -0.07783296830160899, 0.4781596236188015, 0.30654098101186644], [0.7432756813989077, 0.29833751837160927, -0.6417827469108097, -0.027333518376821936, -0.47846993278818506, -0.21158685962791204, 0.6169564243856037, 0.26027208841189614, -0.2853371526204483, -0.41384838186282225, 0.01338323337456105, -0.49665860123130723], [-0.27399187090859706, 0.1273773333693286, 0.4716541636928835, 0.24852583033589196, -0.9354150248429591, 0.1242571968006814, 0.029407583128203418, 0.16897000144300237, 0.6598148395652497, -0.8423134993251429, -0.2413169628216028, 0.24123649610467465], [-0.6456832097842921, 0.602553675679611, 0.15038095741610308, 0.34561646495465287, -0.23308677376745107, 0.3322176352702705, 0.4362016861417886, 0.09507205360760805, 0.09569376372744601, 0.11036716527522765, -0.3524592284099238, -0.06022833150251397], [-0.06226706313089455, 0.15651988969664857, 0.408176539565447, -0.43214554586200116, -0.05103472292051279, 0.6048016947299818, -0.30356862322178113, -0.3356821638926551, 0.08259115696533911, 0.3447188105086353, 0.004664667649384288, 0.5425458891397469], [0.34978467866250945, 0.34367160318604256, 0.22621711438337797, 0.9502603990091998, -0.0837569087482415, -0.8179345506423947, 0.6549341005585688, -0.18685501023440698, 0.04404200697752516, 0.5346218283700912, -0.65411971851672, -0.5109828354226882]], "b": [0.0, 0.0, 0.0, 0.0, 0.0, 0.0, 0.0, 0.0, 0.0, 0.0, 0.0, 0.0, 0.0, 0.0, 0.0, 0.0, 0.0, 0.0, 0.0, 0.0, 0.0, 0.0, 0.0, 0.0, 0.0, 0.0, 0.0, 0.0, 0.0, 0.0, 0.0, 0.0]}, {"W": [[-0.4003194842797134, -0.19853407250635596, 0.10990915150424839, 0.13104696070319274, 0.06906854483213844, -0.3531914709730916, -0.577525859158161, 0.013588396347595566, -0.11794400840958394, 0.11484644292915294, 0.17548840655531753, 0.03456035801467048, 0.19003327134396344, 0.057302843528767106, 0.13251617640036667, -0.1761683157174706, -0.044902853457864635, 0.04919402416423931, 0.2051321188543547, -0.09843529305614303, 0.13029181393302816, -0.06645969797884475, -0.02938554183203259, 0.20737976050601825, -0.498265092763539, -0.32411808201869025, -0.3705463493607052, -0.5834040299620762, -0.16956611003879418, 0.1873584749319351, -0.07122101659564369, 0.04944752048546303], [0.27230437417769815, 0.3319215330669229, -0.017284483681534887, 0.3383964723923493, 0.023031664608527302, -0.20934955595686552, -0.1486000880496838, -0.37013412814125407, -0.2220334634334131, -0.08950417201860729, 0.2008962548446504, 0.43019245779149595, -0.34554537884426, 0.09820686706497973, -0.2601359847893836, 0.11867427211580049, -0.03277166267193165, -0.4577264564618826, 0.23207424789212108, -0.15125017820218276, -0.13347505959338865, -0.2674381028224225, -0.16357081917188887, 0.1069726101737293, -0.04731108523410138, 0.08216550057062026, 0.09048046348221092, 0.33016541388204174, -0.08569653771609483, -0.36921445421143295, 0.26680560414299576, -0.08287204302431367], [0.27864811114434423, 0.0958442782956176, -0.03278438255083623, 0.08719397351157378, 0.4877531400315749, 0.5192451322634383, 0.017345283783194675, 0.040047648329268826, 0.2690600393665964, -0.2114152581918368, 0.08326759315456378, -0.0064657119884641, 0.0784770528643884, -0.20834220148735144, -0.39739187332724224, -0.5182458589978229, -0.27934602824740196, -0.11466882123483325, -0.07329789666219046, 0.4843077906073792, 0.27649834247682453, -0.2405227790854068, 0.08692711311273923, -0.10176955908758127, -0.07109095951002378, 0.046331412353845504, 0.15479277924384832, -0.08481462097100384, 0.2659628831835896, -0.285484556535601, 0.0015847655905671105, 0.6494184316489581], [0.05576993565631878, 0.3583036266515432, 0.022880044543302044, 0.14519427383244918, -0.014195798598172884, -0.04260189529105111, -0.1948705991813549, 0.1075753397393883, -0.21288429729644198, 0.16639630907835729, 0.2713217511114775, 0.09163285180930748, -0.07156218338892296, 0.11349139482717402, -0.07716826388660315, 0.23388678136628732, -0.4578515210537809, -0.08390184202966156, -0.49770299878099944, -0.37376520755680126, 0.34096555745347734, 0.2237962454929215, -0.1798700583211976, -0.37562586401022424, -0.7411322094604128, -0.13587387698315864, 0.6051037530618506, 0.10872106786591185, -0.13989307151237237, 0.11627005237507657, -0.3902395882486107, -0.07433084067440886], [0.024869368253934623, -0.021525162955262127, 0.19770153042252014, 0.08616130655901309, 0.16708150452699924, -0.17209307055768985, 0.22445385210263702, 0.40723423690599786, -0.24253737991285315, -0.22192391392863994, 0.3339460840800582, -0.04783599667376507, 0.35095534801663925, -0.11063392797304597, 0.3637613940676778, 0.032871454201363046, 0.0645572058306738, 0.3911795054174761, -0.09044261936104281, -0.23528052398123958, -0.11214105200708858, 0.11308348766078467, -0.3914397680451286, 0.15936772566278037, -0.1346928294044358, 0.28695316518339087, -0.5985650762251179, -0.19664144377604217, -0.4216170378085255, -0.20655736659098814, 0.06191647527723578, -0.044806656362438725], [-0.06334439223700374, -0.0397962178450152, 0.05084706015498586, -0.25213401048577694, 0.1767124102247627, 0.16566649259637098, 0.09625948441402525, 0.1391333606878158, 0.07410450020216487, 0.5087683256827669, -0.021773542763127474, -0.07677080458364419, -0.18838189508934447, -0.2580656676444592, -0.31111794690026884, -0.22219932830772962, -0.01767009541301783, 0.08357378212442862, 0.012785514638040446, -0.19138381935742824, 0.22504614100499082, 0.18485316807523688, -0.03991207685550425, -0.163229036166178, 0.13710698020744988, 0.046993396871526115, -0.3620318148537619, -0.016995063996101224, 0.06550895301859526, -0.22492369662193845, 0.04746084820936075, -0.3637056213144473], [0.3340465250030427, 0.31198749626485794, -0.06312933357574119, 0.09086358445976829, -0.6024804914499687, -0.2890869150663332, -0.07344473003803245, -0.2680332553567148, 0.1785991206576647, 0.4993241326869985, -0.2941536798573255, -0.20936585102129818, 0.05886209207748258, 0.4027790371249052, -0.3055935781349758, 0.06225903057673549, 0.4553247127032772, -0.4129397870448168, -0.320267301711458, -0.10590165161520956, -0.13014710321385276, 0.20315032193841115, 0.060414929955209515, -0.44374051491053207, 0.12885260072520272, -0.14438472183891263, 0.31861180423530977, -0.15689688410922992, -0.15915382077555892, 0.13528290270113286, 0.19073162058423415, 0.1120248409840509], [-0.42139932934620206, 0.13450860998206277, -0.25857701291859975, 0.058819027897065876, -0.35593360884976505, 0.11158053688576591, -0.20164972607684314, -0.3206586625651304, 0.17845503412059988, 0.060411130419187824, -0.15349420034822428, 0.36279471225526605, -0.11016310539243561, 0.008026918492733666, 0.06722836191965023, -0.1549164835321534, 0.11778407334998234, -0.1333630867911811, -0.1029095805540523, 0.3406606599508353, -0.26014651312810827, -0.6031950827323725, 0.4027342487529736, 0.6373319881517507, -0.10131731636233296, -0.4842095101550463, -0.07762099404898594, -0.0715557374601673, -0.04748096025556426, -0.27834701048046206, 0.14489028561911935, 0.13112684382152154], [-0.37360140495482663, 0.17479918292372196, 0.5131712454864727, 0.042990083109264964, -0.08433129051712651, -0.03550080360188033, 0.1538141917421403, -0.43266790137680455, 0.04109767574432556, -0.09761598736570253, 0.46195625323901135, -0.04354318345123947, 0.41697190277987994, -0.2759351744455018, 0.14681479170069806, 0.0798500659478072, -0.2172618119661956, 0.04434902865923511, 0.3031297092079001, -0.08094792607165018, -0.4229906622924408, -0.004390706619361477, -0.22560577369812815, -0.0855852346659706, -0.020396942421280245, -0.4264130540038793, -0.4039145848301695, 0.12051670888138132, -0.1306796740424201, -0.6411860854551418, 0.19621100915203377, 0.06809243881855996], [-0.178468706009121, -0.3292075527645604, 0.2089519740785843, 0.0873376556401074, 0.5956505706710183, 0.10504714968123434, 0.0969257853155037, -0.04173198252714128, 0.20419396680019775, 0.15627130031203842, 0.31293125214129874, -0.1303307296593212, -0.10885186823599058, -0.11977579272799503, 0.1977004302947473, 0.374593610074183, -0.11471012328732516, -0.10619343194827281, 0.0785193059674498, -0.061440375003225356, 0.2380134132849725, -0.5629443226547617, -0.20667626172922365, -0.19560408349036146, -0.5800890030965362, -0.24090961109220102, -0.22878902896148154, -0.05027616362970758, 0.2782414729150659, -0.06126516279767559, -0.25770343006778845, -0.014238635303382246], [0.26229340536033735, -0.24398970402872622, -0.22764372098036215, 0.13963723981855586, -0.055384028932700134, 0.16187117267736859, -0.0034116979488241902, 0.17541591202239176, -0.2587695285101602, -0.00302116269706686, -0.052672503590789205, -0.30397273102603267, -0.3908694869671721, 0.17143725881866545, -0.08773809555449452, -0.2555700704118324, -0.024044734230833063, 0.28200471433732566, -0.5701844613429807, -0.3741596724758316, -0.2307216104738169, 0.36529471668008223, 0.07064674572982413, 0.1918293101153067, -0.28504022978155763, -0.27988396881763156, 0.1119534291806776, 0.014568582733861638, 0.13718470471603164, -0.04691774773211303, 0.06953593161365675, 0.039529771226277294], [0.19444184727123134, 0.20175207048611765, -0.40496799859794247, -0.5618171388352139, 0.2504363494128768, 0.29693127331548413, -0.25515575487833436, -0.46495885163640716, 0.02475870525180023, 0.23270955658763234, 0.44939863060857865, 0.12907439302536275, -0.09292917414642374, -0.22328265539621567, 0.002862822917663604, -0.0748161759713141, -0.25376697643220403, 0.5121889127158217, 0.44629210051803275, 0.2840121708888571, -0.2302125994522819, 0.2137548310743197, 0.15990660237447546, 0.11063640605101324, 0.3124163167609443, 0.15884278571531935, 0.18500355907608387, 0.15922657084305253, 0.08519785200052647, -0.44590278242854586, 0.020905269352639307, -0.1390479897122813], [-0.3199602394100051, 0.420454154825206, 0.4322488352214259, 0.339805150073903, 0.06380335421396865, 0.3376562802381642, 0.0030132951504563857, 0.050699319224444844, -0.27336784261549574, 0.09924782612471, 0.015096482106104274, -0.3256630292086161, -0.012799277954149226, -0.01993239096420212, 0.44939029166116, 0.22355333212835238, 0.002861359772866504, 0.06219682745027075, 0.011053094526049514, -0.05072849619888693, -0.2706067993470717, -0.037762969401732314, -0.18652456416312835, -0.3125788847307866, 0.12780545363688367, 0.09781616498330874, -0.4466768778420195, -0.030671159373781804, 0.24892534647498088, 0.2648059347240802, 0.25645921072130967, 0.00972830172536495], [-0.21126133199228778, -0.27092470683951514, 0.08615122618758937, 0.09482000859129075, 0.32183277790126635, 0.2749949125855209, -0.03305716413279303, -0.31105146971521735, -0.07977664925272446, 0.054307798702631166, -0.05052081134735102, -0.14447352701941396, 0.06322120374247472, -0.1259894353526526, -0.1570165209313435, 0.07786320857585989, -0.1004981450323012, 0.06102609724458803, 0.06830100571303067, -0.28485725027289366, -0.12031028096635304, 0.3594442349791156, -0.2905198781835718, -0.5291636122426328, -0.4654612883106279, 0.007277486644167301, 0.007729319508174727, -0.029402713856280235, 0.3035474572321254, -0.6682086082757345, 0.0989834686077059, 0.3903595504508933], [-0.2819451912229285, -0.09495162794747378, -0.18822297930715523, -0.2235865115193822, -0.08156550125576, 0.35687132092112617, 0.4593466688718801, -0.08398480626003693, 0.47626505351611753, 0.008894119246156216, 0.43842275667527025, -0.023324662413372943, 0.032764456511536075, 0.09136861816070864, 0.7947134198418838, 0.21282139371119727, -0.1768161324878659, 0.24224946756896448, -0.09045813427108537, -0.12243754572530229, 0.2271503399730278, 0.007771396942788196, 0.06964397862795152, 0.0034963054663231154, 0.08414578165135868, 0.1062414743590373, -0.48424173317635383, 0.1666431671523834, -0.24550485495757515, -0.3605747838898528, -0.01460281096467061, 0.020995250828613567], [-0.1733765411430702, 0.2077579644169936, -0.33554379159272674, -0.10173593719313974, -0.14621853373325017, -0.011646817584834842, 0.0697160711618097, -0.2519732374058862, 0.18107066936405705, 0.015750592083674932, -0.4729865633279776, -0.48964786009925776, -0.0030798232323278087, -0.05524182944658852, -0.025855028393658375, -0.006995614132554495, 0.05638995987754518, 0.23691240246207493, -0.27777622522938955, -0.2929928982251987, -0.2733309644718456, 0.07222916679217672, 0.3112368446616114, -0.10783485955987762, -0.6254249610399136, -0.4259982156525939, -0.2082591806990029, -0.1394322218738037, -0.1020971568136816, 0.009645280745229266, -0.07793658270561178, 0.2623349026358518]], "b": [0.0, 0.0, 0.0, 0.0, 0.0, 0.0, 0.0, 0.0, 0.0, 0.0, 0.0, 0.0, 0.0, 0.0, 0.0, 0.0]}, {"W": [[-0.23900821052337753, -0.3048754383420515, 0.16930807031608908, -0.5429314605600527, 0.13777682370196168, 0.0362580258225566, -0.05212879222808268, 0.5615404028809076, -0.21998355193632643, 0.7284254038219069, -0.07970205322094996, -0.451493493962593, 0.02472030492958151, -0.38051013968243763, -0.2657858288927841, 0.1403724693989134]], "b": [0.0]}], "buffer": [], "norm_mean": null, "norm_std": null}